<?xml version="1.0" encoding="UTF-8" standalone="yes"?>
<PMML xmlns="http://www.dmg.org/PMML-4_4" xmlns:data="http://jpmml.org/jpmml-model/InlineTable" version="4.4">
	<Header>
		<Application name="JPMML-SkLearn" version="1.6.18"/>
		<Timestamp>2021-06-03T02:36:54Z</Timestamp>
	</Header>
	<MiningBuildTask>
		<Extension>PMMLPipeline(steps=[('classifier', RandomForestClassifier(max_depth=2, n_estimators=3))])</Extension>
	</MiningBuildTask>
	<DataDictionary>
		<DataField name="label" optype="categorical" dataType="string">
			<Value value="fraud"/>
			<Value value="good"/>
		</DataField>
		<DataField name="a" optype="continuous" dataType="float"/>
		<DataField name="b" optype="continuous" dataType="float"/>
		<DataField name="c" optype="continuous" dataType="float"/>
	</DataDictionary>
	<TransformationDictionary/>
	<MiningModel functionName="classification" algorithmName="sklearn.ensemble._forest.RandomForestClassifier">
		<MiningSchema>
			<MiningField name="label" usageType="target"/>
			<MiningField name="b"/>
			<MiningField name="c"/>
			<MiningField name="a"/>
		</MiningSchema>
		<Output>
			<OutputField name="probability(fraud)" optype="continuous" dataType="double" feature="probability" value="fraud"/>
			<OutputField name="probability(good)" optype="continuous" dataType="double" feature="probability" value="good"/>
		</Output>
		<LocalTransformations>
			<DerivedField name="double(c)" optype="continuous" dataType="double">
				<FieldRef field="c"/>
			</DerivedField>
			<DerivedField name="double(a)" optype="continuous" dataType="double">
				<FieldRef field="a"/>
			</DerivedField>
		</LocalTransformations>
		<Segmentation multipleModelMethod="average">
			<Segment id="1">
				<True/>
				<TreeModel functionName="classification" splitCharacteristic="binarySplit">
					<MiningSchema>
						<MiningField name="double(c)"/>
						<MiningField name="double(a)"/>
					</MiningSchema>
					<Node id="0">
						<True/>
						<Node id="1">
							<SimplePredicate field="double(c)" operator="lessOrEqual" value="0.949999988079071"/>
							<Node id="2" score="fraud" recordCount="7">
								<SimplePredicate field="double(a)" operator="lessOrEqual" value="0.5000000149011612"/>
								<ScoreDistribution value="fraud" recordCount="6"/>
								<ScoreDistribution value="good" recordCount="1"/>
							</Node>
							<Node id="3" score="good" recordCount="9">
								<SimplePredicate field="double(a)" operator="greaterThan" value="0.5000000149011612"/>
								<ScoreDistribution value="fraud" recordCount="3"/>
								<ScoreDistribution value="good" recordCount="6"/>
							</Node>
						</Node>
						<Node id="4" score="good" recordCount="4">
							<SimplePredicate field="double(c)" operator="greaterThan" value="0.949999988079071"/>
							<ScoreDistribution value="fraud" recordCount="0"/>
							<ScoreDistribution value="good" recordCount="4"/>
						</Node>
					</Node>
				</TreeModel>
			</Segment>
			<Segment id="2">
				<True/>
				<TreeModel functionName="classification" splitCharacteristic="binarySplit">
					<MiningSchema>
						<MiningField name="double(c)"/>
						<MiningField name="double(a)"/>
					</MiningSchema>
					<Node id="0">
						<True/>
						<Node id="1">
							<SimplePredicate field="double(a)" operator="lessOrEqual" value="0.5499999970197678"/>
							<Node id="2" score="fraud" recordCount="1">
								<SimplePredicate field="double(a)" operator="lessOrEqual" value="0.30000000447034836"/>
								<ScoreDistribution value="fraud" recordCount="1"/>
								<ScoreDistribution value="good" recordCount="0"/>
							</Node>
							<Node id="3" score="fraud" recordCount="10">
								<SimplePredicate field="double(a)" operator="greaterThan" value="0.30000000447034836"/>
								<ScoreDistribution value="fraud" recordCount="6"/>
								<ScoreDistribution value="good" recordCount="4"/>
							</Node>
						</Node>
						<Node id="4">
							<SimplePredicate field="double(a)" operator="greaterThan" value="0.5499999970197678"/>
							<Node id="5" score="good" recordCount="8">
								<SimplePredicate field="double(c)" operator="lessOrEqual" value="0.6500000059604645"/>
								<ScoreDistribution value="fraud" recordCount="1"/>
								<ScoreDistribution value="good" recordCount="7"/>
							</Node>
							<Node id="6" score="fraud" recordCount="1">
								<SimplePredicate field="double(c)" operator="greaterThan" value="0.6500000059604645"/>
								<ScoreDistribution value="fraud" recordCount="1"/>
								<ScoreDistribution value="good" recordCount="0"/>
							</Node>
						</Node>
					</Node>
				</TreeModel>
			</Segment>
			<Segment id="3">
				<True/>
				<TreeModel functionName="classification" splitCharacteristic="binarySplit">
					<MiningSchema>
						<MiningField name="b"/>
						<MiningField name="double(a)"/>
					</MiningSchema>
					<LocalTransformations>
						<DerivedField name="double(b)" optype="continuous" dataType="double">
							<FieldRef field="b"/>
						</DerivedField>
					</LocalTransformations>
					<Node id="0">
						<True/>
						<Node id="1">
							<SimplePredicate field="double(b)" operator="lessOrEqual" value="0.8499999940395355"/>
							<Node id="2" score="good" recordCount="11">
								<SimplePredicate field="double(a)" operator="lessOrEqual" value="0.8499999940395355"/>
								<ScoreDistribution value="fraud" recordCount="2"/>
								<ScoreDistribution value="good" recordCount="9"/>
							</Node>
							<Node id="3" score="fraud" recordCount="6">
								<SimplePredicate field="double(a)" operator="greaterThan" value="0.8499999940395355"/>
								<ScoreDistribution value="fraud" recordCount="4"/>
								<ScoreDistribution value="good" recordCount="2"/>
							</Node>
						</Node>
						<Node id="4" score="fraud" recordCount="3">
							<SimplePredicate field="double(b)" operator="greaterThan" value="0.8499999940395355"/>
							<ScoreDistribution value="fraud" recordCount="3"/>
							<ScoreDistribution value="good" recordCount="0"/>
						</Node>
					</Node>
				</TreeModel>
			</Segment>
		</Segmentation>
		<ModelVerification recordCount="15">
			<VerificationFields>
				<VerificationField field="a" column="data:a"/>
				<VerificationField field="b" column="data:b"/>
				<VerificationField field="c" column="data:c"/>
				<VerificationField field="probability(fraud)" column="data:probability_fraud" precision="1.0E-13" zeroThreshold="1.0E-13"/>
				<VerificationField field="probability(good)" column="data:probability_good" precision="1.0E-13" zeroThreshold="1.0E-13"/>
			</VerificationFields>
			<InlineTable>
				<row>
					<data:a>0.8</data:a>
					<data:b>0.3</data:b>
					<data:c>0.3</data:c>
					<data:probability_fraud>0.21338383838383837</data:probability_fraud>
					<data:probability_good>0.7866161616161617</data:probability_good>
				</row>
				<row>
					<data:a>0.7</data:a>
					<data:b>0.4</data:b>
					<data:c>0.5</data:c>
					<data:probability_fraud>0.21338383838383837</data:probability_fraud>
					<data:probability_good>0.7866161616161617</data:probability_good>
				</row>
				<row>
					<data:a>0.6</data:a>
					<data:b>0.2</data:b>
					<data:c>0.5</data:c>
					<data:probability_fraud>0.21338383838383837</data:probability_fraud>
					<data:probability_good>0.7866161616161617</data:probability_good>
				</row>
				<row>
					<data:a>0.6</data:a>
					<data:b>0.9</data:b>
					<data:c>0.0</data:c>
					<data:probability_fraud>0.4861111111111111</data:probability_fraud>
					<data:probability_good>0.5138888888888888</data:probability_good>
				</row>
				<row>
					<data:a>0.9</data:a>
					<data:b>1.0</data:b>
					<data:c>0.0</data:c>
					<data:probability_fraud>0.4861111111111111</data:probability_fraud>
					<data:probability_good>0.5138888888888888</data:probability_good>
				</row>
				<row>
					<data:a>0.5</data:a>
					<data:b>0.9</data:b>
					<data:c>0.6</data:c>
					<data:probability_fraud>0.8190476190476191</data:probability_fraud>
					<data:probability_good>0.18095238095238098</data:probability_good>
				</row>
				<row>
					<data:a>0.0</data:a>
					<data:b>1.0</data:b>
					<data:c>1.0</data:c>
					<data:probability_fraud>0.6666666666666666</data:probability_fraud>
					<data:probability_good>0.3333333333333333</data:probability_good>
				</row>
				<row>
					<data:a>1.0</data:a>
					<data:b>0.2</data:b>
					<data:c>1.0</data:c>
					<data:probability_fraud>0.5555555555555555</data:probability_fraud>
					<data:probability_good>0.4444444444444444</data:probability_good>
				</row>
				<row>
					<data:a>0.7</data:a>
					<data:b>0.0</data:b>
					<data:c>0.9</data:c>
					<data:probability_fraud>0.5050505050505051</data:probability_fraud>
					<data:probability_good>0.494949494949495</data:probability_good>
				</row>
				<row>
					<data:a>0.4</data:a>
					<data:b>0.6</data:b>
					<data:c>0.9</data:c>
					<data:probability_fraud>0.5463203463203463</data:probability_fraud>
					<data:probability_good>0.4536796536796537</data:probability_good>
				</row>
				<row>
					<data:a>0.0</data:a>
					<data:b>0.5</data:b>
					<data:c>0.4</data:c>
					<data:probability_fraud>0.6796536796536796</data:probability_fraud>
					<data:probability_good>0.3203463203463204</data:probability_good>
				</row>
				<row>
					<data:a>0.5</data:a>
					<data:b>0.5</data:b>
					<data:c>0.2</data:c>
					<data:probability_fraud>0.5463203463203463</data:probability_fraud>
					<data:probability_good>0.4536796536796537</data:probability_good>
				</row>
				<row>
					<data:a>0.7</data:a>
					<data:b>0.6</data:b>
					<data:c>0.8</data:c>
					<data:probability_fraud>0.5050505050505051</data:probability_fraud>
					<data:probability_good>0.494949494949495</data:probability_good>
				</row>
				<row>
					<data:a>0.9</data:a>
					<data:b>0.4</data:b>
					<data:c>0.8</data:c>
					<data:probability_fraud>0.6666666666666666</data:probability_fraud>
					<data:probability_good>0.3333333333333333</data:probability_good>
				</row>
				<row>
					<data:a>0.9</data:a>
					<data:b>0.9</data:b>
					<data:c>0.1</data:c>
					<data:probability_fraud>0.4861111111111111</data:probability_fraud>
					<data:probability_good>0.5138888888888888</data:probability_good>
				</row>
			</InlineTable>
		</ModelVerification>
	</MiningModel>
</PMML>
