<?xml version="1.0" encoding="UTF-8" standalone="yes"?>
<PMML xmlns="http://www.dmg.org/PMML-4_4" xmlns:data="http://jpmml.org/jpmml-model/InlineTable" version="4.4">
	<Header>
		<Application name="JPMML-SkLearn" version="1.6.18"/>
		<Timestamp>2021-06-10T01:13:05Z</Timestamp>
	</Header>
	<MiningBuildTask>
		<Extension>PMMLPipeline(steps=[('mapper', DataFrameMapper(drop_cols=[],
                features=[(['Sepal.Length', 'Sepal.Width', 'Petal.Length',
                            'Petal.Width'],
                           [ContinuousDomain(), SimpleImputer()])])),
       ('pca', PCA(n_components=3)),
       ('selector', SelectKBest(k=2)),
       ('classifier', LogisticRegression(multi_class='ovr'))])</Extension>
	</MiningBuildTask>
	<DataDictionary>
		<DataField name="Species" optype="categorical" dataType="string">
			<Value value="Setosa"/>
			<Value value="Versicolor"/>
			<Value value="Virginica"/>
		</DataField>
		<DataField name="Sepal.Length" optype="continuous" dataType="double">
			<Interval closure="closedClosed" leftMargin="4.3" rightMargin="7.9"/>
		</DataField>
		<DataField name="Sepal.Width" optype="continuous" dataType="double">
			<Interval closure="closedClosed" leftMargin="2.0" rightMargin="4.4"/>
		</DataField>
		<DataField name="Petal.Length" optype="continuous" dataType="double">
			<Interval closure="closedClosed" leftMargin="1.0" rightMargin="6.9"/>
		</DataField>
		<DataField name="Petal.Width" optype="continuous" dataType="double">
			<Interval closure="closedClosed" leftMargin="0.1" rightMargin="2.5"/>
		</DataField>
	</DataDictionary>
	<TransformationDictionary/>
	<MiningModel functionName="classification" algorithmName="sklearn.linear_model._logistic.LogisticRegression">
		<MiningSchema>
			<MiningField name="Species" usageType="target"/>
			<MiningField name="Sepal.Length" missingValueReplacement="5.843333333333334" missingValueTreatment="asMean"/>
			<MiningField name="Sepal.Width" missingValueReplacement="3.0573333333333337" missingValueTreatment="asMean"/>
			<MiningField name="Petal.Length" missingValueReplacement="3.7580000000000005" missingValueTreatment="asMean"/>
			<MiningField name="Petal.Width" missingValueReplacement="1.1993333333333336" missingValueTreatment="asMean"/>
		</MiningSchema>
		<ModelStats>
			<UnivariateStats field="Sepal.Length">
				<Counts totalFreq="150" missingFreq="0" invalidFreq="0"/>
				<NumericInfo minimum="4.3" maximum="7.9" mean="5.843333333333335" standardDeviation="0.8253012917851409" median="5.8" interQuartileRange="1.3000000000000007"/>
			</UnivariateStats>
			<UnivariateStats field="Sepal.Width">
				<Counts totalFreq="150" missingFreq="0" invalidFreq="0"/>
				<NumericInfo minimum="2.0" maximum="4.4" mean="3.057333333333334" standardDeviation="0.43441096773549437" median="3.0" interQuartileRange="0.5"/>
			</UnivariateStats>
			<UnivariateStats field="Petal.Length">
				<Counts totalFreq="150" missingFreq="0" invalidFreq="0"/>
				<NumericInfo minimum="1.0" maximum="6.9" mean="3.7580000000000027" standardDeviation="1.7594040657753032" median="4.35" interQuartileRange="3.4999999999999996"/>
			</UnivariateStats>
			<UnivariateStats field="Petal.Width">
				<Counts totalFreq="150" missingFreq="0" invalidFreq="0"/>
				<NumericInfo minimum="0.1" maximum="2.5" mean="1.199333333333334" standardDeviation="0.7596926279021594" median="1.3" interQuartileRange="1.5"/>
			</UnivariateStats>
		</ModelStats>
		<LocalTransformations>
			<DerivedField name="pca(Sepal.Length, Sepal.Width, Petal.Length, Petal.Width)[0]" optype="continuous" dataType="double">
				<Apply function="sum">
					<Apply function="*">
						<Apply function="-">
							<FieldRef field="Sepal.Length"/>
							<Constant dataType="double">5.843333333333334</Constant>
						</Apply>
						<Constant dataType="double">0.36138659178536847</Constant>
					</Apply>
					<Apply function="*">
						<Apply function="-">
							<FieldRef field="Sepal.Width"/>
							<Constant dataType="double">3.0573333333333337</Constant>
						</Apply>
						<Constant dataType="double">-0.08452251406456857</Constant>
					</Apply>
					<Apply function="*">
						<Apply function="-">
							<FieldRef field="Petal.Length"/>
							<Constant dataType="double">3.7580000000000005</Constant>
						</Apply>
						<Constant dataType="double">0.8566706059498351</Constant>
					</Apply>
					<Apply function="*">
						<Apply function="-">
							<FieldRef field="Petal.Width"/>
							<Constant dataType="double">1.1993333333333336</Constant>
						</Apply>
						<Constant dataType="double">0.3582891971515507</Constant>
					</Apply>
				</Apply>
			</DerivedField>
			<DerivedField name="pca(Sepal.Length, Sepal.Width, Petal.Length, Petal.Width)[1]" optype="continuous" dataType="double">
				<Apply function="sum">
					<Apply function="*">
						<Apply function="-">
							<FieldRef field="Sepal.Length"/>
							<Constant dataType="double">5.843333333333334</Constant>
						</Apply>
						<Constant dataType="double">0.6565887712868423</Constant>
					</Apply>
					<Apply function="*">
						<Apply function="-">
							<FieldRef field="Sepal.Width"/>
							<Constant dataType="double">3.0573333333333337</Constant>
						</Apply>
						<Constant dataType="double">0.730161434785027</Constant>
					</Apply>
					<Apply function="*">
						<Apply function="-">
							<FieldRef field="Petal.Length"/>
							<Constant dataType="double">3.7580000000000005</Constant>
						</Apply>
						<Constant dataType="double">-0.17337266279585672</Constant>
					</Apply>
					<Apply function="*">
						<Apply function="-">
							<FieldRef field="Petal.Width"/>
							<Constant dataType="double">1.1993333333333336</Constant>
						</Apply>
						<Constant dataType="double">-0.07548101991746359</Constant>
					</Apply>
				</Apply>
			</DerivedField>
		</LocalTransformations>
		<Segmentation multipleModelMethod="modelChain" missingPredictionTreatment="returnMissing">
			<Segment id="1">
				<True/>
				<RegressionModel functionName="regression" normalizationMethod="logit">
					<MiningSchema>
						<MiningField name="pca(Sepal.Length, Sepal.Width, Petal.Length, Petal.Width)[0]"/>
						<MiningField name="pca(Sepal.Length, Sepal.Width, Petal.Length, Petal.Width)[1]"/>
					</MiningSchema>
					<Output>
						<OutputField name="decisionFunction(Setosa)" optype="continuous" dataType="double" isFinalResult="false"/>
					</Output>
					<RegressionTable intercept="-3.0635999764155963">
						<NumericPredictor name="pca(Sepal.Length, Sepal.Width, Petal.Length, Petal.Width)[0]" coefficient="-2.5777270870220446"/>
						<NumericPredictor name="pca(Sepal.Length, Sepal.Width, Petal.Length, Petal.Width)[1]" coefficient="0.8444880790599655"/>
					</RegressionTable>
				</RegressionModel>
			</Segment>
			<Segment id="2">
				<True/>
				<RegressionModel functionName="regression" normalizationMethod="logit">
					<MiningSchema>
						<MiningField name="pca(Sepal.Length, Sepal.Width, Petal.Length, Petal.Width)[0]"/>
						<MiningField name="pca(Sepal.Length, Sepal.Width, Petal.Length, Petal.Width)[1]"/>
					</MiningSchema>
					<Output>
						<OutputField name="decisionFunction(Versicolor)" optype="continuous" dataType="double" isFinalResult="false"/>
					</Output>
					<RegressionTable intercept="-0.8378074191582999">
						<NumericPredictor name="pca(Sepal.Length, Sepal.Width, Petal.Length, Petal.Width)[0]" coefficient="0.24642105454846297"/>
						<NumericPredictor name="pca(Sepal.Length, Sepal.Width, Petal.Length, Petal.Width)[1]" coefficient="-1.6124723921769464"/>
					</RegressionTable>
				</RegressionModel>
			</Segment>
			<Segment id="3">
				<True/>
				<RegressionModel functionName="regression" normalizationMethod="logit">
					<MiningSchema>
						<MiningField name="pca(Sepal.Length, Sepal.Width, Petal.Length, Petal.Width)[0]"/>
						<MiningField name="pca(Sepal.Length, Sepal.Width, Petal.Length, Petal.Width)[1]"/>
					</MiningSchema>
					<Output>
						<OutputField name="decisionFunction(Virginica)" optype="continuous" dataType="double" isFinalResult="false"/>
					</Output>
					<RegressionTable intercept="-4.557970932992468">
						<NumericPredictor name="pca(Sepal.Length, Sepal.Width, Petal.Length, Petal.Width)[0]" coefficient="3.407144477780455"/>
						<NumericPredictor name="pca(Sepal.Length, Sepal.Width, Petal.Length, Petal.Width)[1]" coefficient="-1.5276138854717904"/>
					</RegressionTable>
				</RegressionModel>
			</Segment>
			<Segment id="4">
				<True/>
				<RegressionModel functionName="classification" normalizationMethod="simplemax">
					<MiningSchema>
						<MiningField name="Species" usageType="target"/>
						<MiningField name="decisionFunction(Setosa)"/>
						<MiningField name="decisionFunction(Versicolor)"/>
						<MiningField name="decisionFunction(Virginica)"/>
					</MiningSchema>
					<Output>
						<OutputField name="probability(Setosa)" optype="continuous" dataType="double" feature="probability" value="Setosa"/>
						<OutputField name="probability(Versicolor)" optype="continuous" dataType="double" feature="probability" value="Versicolor"/>
						<OutputField name="probability(Virginica)" optype="continuous" dataType="double" feature="probability" value="Virginica"/>
					</Output>
					<RegressionTable intercept="0.0" targetCategory="Setosa">
						<NumericPredictor name="decisionFunction(Setosa)" coefficient="1.0"/>
					</RegressionTable>
					<RegressionTable intercept="0.0" targetCategory="Versicolor">
						<NumericPredictor name="decisionFunction(Versicolor)" coefficient="1.0"/>
					</RegressionTable>
					<RegressionTable intercept="0.0" targetCategory="Virginica">
						<NumericPredictor name="decisionFunction(Virginica)" coefficient="1.0"/>
					</RegressionTable>
				</RegressionModel>
			</Segment>
		</Segmentation>
		<ModelVerification recordCount="15">
			<VerificationFields>
				<VerificationField field="Petal.Length" column="data:Petal.Length"/>
				<VerificationField field="Petal.Width" column="data:Petal.Width"/>
				<VerificationField field="Sepal.Length" column="data:Sepal.Length"/>
				<VerificationField field="Sepal.Width" column="data:Sepal.Width"/>
				<VerificationField field="probability(Setosa)" column="data:probability_Setosa" precision="1.0E-13" zeroThreshold="1.0E-13"/>
				<VerificationField field="probability(Versicolor)" column="data:probability_Versicolor" precision="1.0E-13" zeroThreshold="1.0E-13"/>
				<VerificationField field="probability(Virginica)" column="data:probability_Virginica" precision="1.0E-13" zeroThreshold="1.0E-13"/>
			</VerificationFields>
			<InlineTable>
				<row>
					<data:Petal.Length>1.1</data:Petal.Length>
					<data:Petal.Width>0.1</data:Petal.Width>
					<data:Sepal.Length>4.3</data:Sepal.Length>
					<data:Sepal.Width>3.0</data:Sepal.Width>
					<data:probability_Setosa>0.7628338533074022</data:probability_Setosa>
					<data:probability_Versicolor>0.23716584785345848</data:probability_Versicolor>
					<data:probability_Virginica>2.9883913925158434E-7</data:probability_Virginica>
				</row>
				<row>
					<data:Petal.Length>1.5</data:Petal.Length>
					<data:Petal.Width>0.4</data:Petal.Width>
					<data:Sepal.Length>5.7</data:Sepal.Length>
					<data:Sepal.Width>4.4</data:Sepal.Width>
					<data:probability_Setosa>0.973302328799294</data:probability_Setosa>
					<data:probability_Versicolor>0.026697276057678392</data:probability_Versicolor>
					<data:probability_Virginica>3.951430276214334E-7</data:probability_Virginica>
				</row>
				<row>
					<data:Petal.Length>6.7</data:Petal.Length>
					<data:Petal.Width>2.0</data:Petal.Width>
					<data:Sepal.Length>7.7</data:Sepal.Length>
					<data:Sepal.Width>2.8</data:Sepal.Width>
					<data:probability_Setosa>6.274746279971523E-6</data:probability_Setosa>
					<data:probability_Versicolor>0.24710720077658194</data:probability_Versicolor>
					<data:probability_Virginica>0.7528865244771381</data:probability_Virginica>
				</row>
				<row>
					<data:Petal.Length>1.6</data:Petal.Length>
					<data:Petal.Width>0.2</data:Petal.Width>
					<data:Sepal.Length>4.8</data:Sepal.Length>
					<data:Sepal.Width>3.1</data:Sepal.Width>
					<data:probability_Setosa>0.8006279651734419</data:probability_Setosa>
					<data:probability_Versicolor>0.1993702781511943</data:probability_Versicolor>
					<data:probability_Virginica>1.7566753636635772E-6</data:probability_Virginica>
				</row>
				<row>
					<data:Petal.Length>5.4</data:Petal.Length>
					<data:Petal.Width>2.1</data:Petal.Width>
					<data:Sepal.Length>6.9</data:Sepal.Length>
					<data:Sepal.Width>3.1</data:Sepal.Width>
					<data:probability_Setosa>2.3854974043837425E-4</data:probability_Setosa>
					<data:probability_Versicolor>0.24338254425017025</data:probability_Versicolor>
					<data:probability_Virginica>0.7563789060093913</data:probability_Virginica>
				</row>
				<row>
					<data:Petal.Length>5.8</data:Petal.Length>
					<data:Petal.Width>2.2</data:Petal.Width>
					<data:Sepal.Length>6.5</data:Sepal.Length>
					<data:Sepal.Width>3.0</data:Sepal.Width>
					<data:probability_Setosa>7.425556425206926E-5</data:probability_Setosa>
					<data:probability_Versicolor>0.31747655105070927</data:probability_Versicolor>
					<data:probability_Virginica>0.6824491933850386</data:probability_Virginica>
				</row>
				<row>
					<data:Petal.Length>3.9</data:Petal.Length>
					<data:Petal.Width>1.4</data:Petal.Width>
					<data:Sepal.Length>5.2</data:Sepal.Length>
					<data:Sepal.Width>2.7</data:Sepal.Width>
					<data:probability_Setosa>0.039773941734197675</data:probability_Setosa>
					<data:probability_Versicolor>0.913369375448648</data:probability_Versicolor>
					<data:probability_Virginica>0.04685668281715421</data:probability_Virginica>
				</row>
				<row>
					<data:Petal.Length>6.1</data:Petal.Length>
					<data:Petal.Width>2.3</data:Petal.Width>
					<data:Sepal.Length>7.7</data:Sepal.Length>
					<data:Sepal.Width>3.0</data:Sepal.Width>
					<data:probability_Setosa>2.4507011011959574E-5</data:probability_Setosa>
					<data:probability_Versicolor>0.1904003332049974</data:probability_Versicolor>
					<data:probability_Virginica>0.8095751597839906</data:probability_Virginica>
				</row>
				<row>
					<data:Petal.Length>1.9</data:Petal.Length>
					<data:Petal.Width>0.2</data:Petal.Width>
					<data:Sepal.Length>4.8</data:Sepal.Length>
					<data:Sepal.Width>3.4</data:Sepal.Width>
					<data:probability_Setosa>0.8230772439351483</data:probability_Setosa>
					<data:probability_Versicolor>0.1769196197166965</data:probability_Versicolor>
					<data:probability_Virginica>3.1363481553246633E-6</data:probability_Virginica>
				</row>
				<row>
					<data:Petal.Length>4.5</data:Petal.Length>
					<data:Petal.Width>1.3</data:Petal.Width>
					<data:Sepal.Length>5.7</data:Sepal.Length>
					<data:Sepal.Width>2.8</data:Sepal.Width>
					<data:probability_Setosa>0.009521350702852099</data:probability_Setosa>
					<data:probability_Versicolor>0.7611711288236422</data:probability_Versicolor>
					<data:probability_Virginica>0.22930752047350567</data:probability_Virginica>
				</row>
				<row>
					<data:Petal.Length>4.3</data:Petal.Length>
					<data:Petal.Width>1.3</data:Petal.Width>
					<data:Sepal.Length>6.2</data:Sepal.Length>
					<data:Sepal.Width>2.9</data:Sepal.Width>
					<data:probability_Setosa>0.02122793949482295</data:probability_Setosa>
					<data:probability_Versicolor>0.781137126868092</data:probability_Versicolor>
					<data:probability_Virginica>0.1976349336370849</data:probability_Virginica>
				</row>
				<row>
					<data:Petal.Length>1.4</data:Petal.Length>
					<data:Petal.Width>0.2</data:Petal.Width>
					<data:Sepal.Length>5.1</data:Sepal.Length>
					<data:Sepal.Width>3.5</data:Sepal.Width>
					<data:probability_Setosa>0.8931618320322028</data:probability_Setosa>
					<data:probability_Versicolor>0.10683754454783587</data:probability_Versicolor>
					<data:probability_Virginica>6.234199612142775E-7</data:probability_Virginica>
				</row>
				<row>
					<data:Petal.Length>5.6</data:Petal.Length>
					<data:Petal.Width>1.8</data:Petal.Width>
					<data:Sepal.Length>6.3</data:Sepal.Length>
					<data:Sepal.Width>2.9</data:Sepal.Width>
					<data:probability_Setosa>1.7740384237736824E-4</data:probability_Setosa>
					<data:probability_Versicolor>0.3450371602684861</data:probability_Versicolor>
					<data:probability_Virginica>0.6547854358891366</data:probability_Virginica>
				</row>
				<row>
					<data:Petal.Length>1.6</data:Petal.Length>
					<data:Petal.Width>0.6</data:Petal.Width>
					<data:Sepal.Length>5.0</data:Sepal.Length>
					<data:Sepal.Width>3.5</data:Sepal.Width>
					<data:probability_Setosa>0.8654419167752481</data:probability_Setosa>
					<data:probability_Versicolor>0.13455613960362395</data:probability_Versicolor>
					<data:probability_Virginica>1.9436211281555164E-6</data:probability_Virginica>
				</row>
				<row>
					<data:Petal.Length>1.5</data:Petal.Length>
					<data:Petal.Width>0.2</data:Petal.Width>
					<data:Sepal.Length>5.0</data:Sepal.Length>
					<data:Sepal.Width>3.4</data:Sepal.Width>
					<data:probability_Setosa>0.8684894127314193</data:probability_Setosa>
					<data:probability_Versicolor>0.13150964505286003</data:probability_Versicolor>
					<data:probability_Virginica>9.42215720580238E-7</data:probability_Virginica>
				</row>
			</InlineTable>
		</ModelVerification>
	</MiningModel>
</PMML>
